{
  "input_nodes": 5,
  "hidden_nodes": 8,
  "output_nodes": 2,
  "weights_ih": {
    "rows": 8,
    "cols": 5,
    "data": [
      [
        -1.015371384361041,
        -0.6002846698301546,
        0.1874529233982225,
        0.06020672174307995,
        -0.8297262803016204
      ],
      [
        0.8256804577301522,
        -0.6642006824680999,
        0.5484173129811829,
        0.13003899514499614,
        -0.676177589836932
      ],
      [
        0.6358902419585749,
        -0.4146814720929069,
        0.1839420162915279,
        0.4187365569754314,
        0.43328028722142686
      ],
      [
        -0.3235474465700978,
        -0.4982364620254204,
        -0.564190408681593,
        -0.20170388440079315,
        -0.9705115525087507
      ],
      [
        -0.6524808694874638,
        1.255848937496276,
        0.6362057026907428,
        -0.12249195919856515,
        -0.04400094112668099
      ],
      [
        -0.32396021712869005,
        0.1037564591399943,
        -0.5804578342725435,
        -0.9884660644830322,
        -0.6195474172330211
      ],
      [
        -0.6377285092352478,
        -0.5657399039167461,
        -0.8568434130056306,
        -0.05873699775187345,
        0.7619961249948327
      ],
      [
        0.8980738710846117,
        0.11712942534579784,
        0.21236582629205694,
        0.24071710303440194,
        -0.8964037957323131
      ]
    ]
  },
  "weights_ho": {
    "rows": 2,
    "cols": 8,
    "data": [
      [
        -0.23685903117251006,
        0.04441088064799964,
        0.42781473576897217,
        -0.8074121734910911,
        -0.012815481397984142,
        -0.7158428040806033,
        -0.7988083270701078,
        -0.39599710947783673
      ],
      [
        -0.09093069344555263,
        -0.9039181123698731,
        -0.5519175116803237,
        0.24341932599800692,
        0.6252903743224367,
        0.8662424055617298,
        -0.28260579945571473,
        -0.9318280660444401
      ]
    ]
  },
  "bias_h": {
    "rows": 8,
    "cols": 1,
    "data": [
      [
        -0.7226790293201635
      ],
      [
        -0.4234910492753528
      ],
      [
        0.5720984070562778
      ],
      [
        0.7159904172359883
      ],
      [
        -0.3494514513352363
      ],
      [
        0.5445157975464109
      ],
      [
        0.4402771619897572
      ],
      [
        0.30898955407702866
      ]
    ]
  },
  "bias_o": {
    "rows": 2,
    "cols": 1,
    "data": [
      [
        -0.12350800632894428
      ],
      [
        -0.2632918623027445
      ]
    ]
  },
  "learning_rate": 0.1,
  "activation_function": {}
}
